<?xml version="1.0"?>
<opencv_storage>
<cascade>
  <stageType>BOOST</stageType>
  <featureType>LBP</featureType>
  <height>50</height>
  <width>25</width>
  <stageParams>
    <boostType>GAB</boostType>
    <minHitRate>9.9500000476837158e-01</minHitRate>
    <maxFalseAlarm>5.0000000000000000e-01</maxFalseAlarm>
    <weightTrimRate>9.4999999999999996e-01</weightTrimRate>
    <maxDepth>1</maxDepth>
    <maxWeakCount>100</maxWeakCount></stageParams>
  <featureParams>
    <maxCatCount>256</maxCatCount>
    <featSize>1</featSize></featureParams>
  <stageNum>18</stageNum>
  <stages>
    <!-- stage 0 -->
    <_>
      <maxWeakCount>2</maxWeakCount>
      <stageThreshold>-2.9792109131813049e-01</stageThreshold>
      <weakClassifiers>
        <_>
          <internalNodes>
            0 -1 14 -203958273 -715668995 1897955679 -44367593
            -1842816273 -32799863 -124351765 127908747</internalNodes>
          <leafValues>
            -9.8294240236282349e-01 7.5088965892791748e-01</leafValues></_>
        <_>
          <internalNodes>
            0 -1 9 2101703679 2102722807 1393809775 1570570631
            -661473057 1787330765 999207675 1072680891</internalNodes>
          <leafValues>
            -9.7923398017883301e-01 6.8502134084701538e-01</leafValues></_></weakClassifiers></_>
    <!-- stage 1 -->
    <_>
      <maxWeakCount>2</maxWeakCount>
      <stageThreshold>-1.6277827322483063e-01</stageThreshold>
      <weakClassifiers>
        <_>
          <internalNodes>
            0 -1 16 -33555457 -4076577 -1336808033 -5248033 -203712561
            -4678 -1049617 -403190526</internalNodes>
          <leafValues>
            -9.2849844694137573e-01 7.8502881526947021e-01</leafValues></_>
        <_>
          <internalNodes>
            0 -1 37 -134219401 -963119273 -549284517 -300680645
            -1349264575 -381459199 -1989181663 -12584073</internalNodes>
          <leafValues>
            -9.4780707359313965e-01 7.7684807777404785e-01</leafValues></_></weakClassifiers></_>
    <!-- stage 2 -->
    <_>
      <maxWeakCount>2</maxWeakCount>
      <stageThreshold>-4.6536904573440552e-01</stageThreshold>
      <weakClassifiers>
        <_>
          <internalNodes>
            0 -1 40 -381171761 -82734771 293671581 -134250099 -344736369
            -62356791 -45354005 587197439</internalNodes>
          <leafValues>
            -9.6204030513763428e-01 4.7336378693580627e-01</leafValues></_>
        <_>
          <internalNodes>
            0 -1 20 -677381186 -78909248 -2113338438 -674504573
            -1979522600 467174561 -1174143297 2147482559</internalNodes>
          <leafValues>
            -9.3873280286788940e-01 5.4319107532501221e-01</leafValues></_></weakClassifiers></_>
    <!-- stage 3 -->
    <_>
      <maxWeakCount>2</maxWeakCount>
      <stageThreshold>-1.9844470918178558e-01</stageThreshold>
      <weakClassifiers>
        <_>
          <internalNodes>
            0 -1 26 -1521645859 -78261957 -779913257 -113044257
            -519456513 -70743936 -1740453133 -5531441</internalNodes>
          <leafValues>
            -8.2778865098953247e-01 7.2384935617446899e-01</leafValues></_>
        <_>
          <internalNodes>
            0 -1 2 -539232777 -644781743 -805187087 -74071973 -133967376
            -397377250 -616048641 2004876159</internalNodes>
          <leafValues>
            -8.9956718683242798e-01 6.2934392690658569e-01</leafValues></_></weakClassifiers></_>
    <!-- stage 4 -->
    <_>
      <maxWeakCount>2</maxWeakCount>
      <stageThreshold>-4.4708099961280823e-01</stageThreshold>
      <weakClassifiers>
        <_>
          <internalNodes>
            0 -1 31 -3147873 -405039713 -1055368945 1892667803
            -390925857 1655365855 -684993589 2012215231</internalNodes>
          <leafValues>
            -9.4743132591247559e-01 4.4193062186241150e-01</leafValues></_>
        <_>
          <internalNodes>
            0 -1 27 -2067018961 -1531317029 -720268835 -38430517
            -2104102281 -376716646 -1695695901 -6558977</internalNodes>
          <leafValues>
            -8.8901162147521973e-01 5.3765183687210083e-01</leafValues></_></weakClassifiers></_>
    <!-- stage 5 -->
    <_>
      <maxWeakCount>3</maxWeakCount>
      <stageThreshold>-1.0673258304595947e+00</stageThreshold>
      <weakClassifiers>
        <_>
          <internalNodes>
            0 -1 29 -543696593 -720658137 8459411 -708341729 -978074961
            -73907557 -32847729 -141558465</internalNodes>
          <leafValues>
            -7.8793776035308838e-01 6.5677964687347412e-01</leafValues></_>
        <_>
          <internalNodes>
            0 -1 38 428868577 659673307 -919512809 -605572339
            -1173679201 -125796166 -511533137 -1058402</internalNodes>
          <leafValues>
            -8.3620911836624146e-01 6.3501149415969849e-01</leafValues></_>
        <_>
          <internalNodes>
            0 -1 23 -134810667 -1475627391 -2079276961 164601989
            -2129403093 -2146581882 -1466175673 -1342185745</internalNodes>
          <leafValues>
            -8.8789635896682739e-01 5.6301480531692505e-01</leafValues></_></weakClassifiers></_>
    <!-- stage 6 -->
    <_>
      <maxWeakCount>3</maxWeakCount>
      <stageThreshold>-1.0754525661468506e+00</stageThreshold>
      <weakClassifiers>
        <_>
          <internalNodes>
            0 -1 18 -981278277 -178324713 86454511 -40939173 -532362833
            -324533041 -359932965 -606152441</internalNodes>
          <leafValues>
            -8.4565913677215576e-01 5.0970017910003662e-01</leafValues></_>
        <_>
          <internalNodes>
            0 -1 10 2098288125 -543997853 -1828601769 -719748075
            2080779965 2061689067 2072283818 -5257029</internalNodes>
          <leafValues>
            -7.7371442317962646e-01 6.2428772449493408e-01</leafValues></_>
        <_>
          <internalNodes>
            0 -1 11 822091792 -674411257 826578767 -3857987 -1073741382
            -1983315576 -1995896353 -656985</internalNodes>
          <leafValues>
            -8.5408115386962891e-01 6.1273074150085449e-01</leafValues></_></weakClassifiers></_>
    <!-- stage 7 -->
    <_>
      <maxWeakCount>3</maxWeakCount>
      <stageThreshold>-9.7823715209960938e-01</stageThreshold>
      <weakClassifiers>
        <_>
          <internalNodes>
            0 -1 42 -78645451 -519843385 -2122243829 -937435117
            -1860189813 403210252 -1702050613 -337121333</internalNodes>
          <leafValues>
            -8.0566799640655518e-01 5.7812500000000000e-01</leafValues></_>
        <_>
          <internalNodes>
            0 -1 47 -2099745 -1210987575 -1006019901 -1558972577
            -629038886 343982080 1682028939 -1093271637</internalNodes>
          <leafValues>
            -7.4397349357604980e-01 7.1551907062530518e-01</leafValues></_>
        <_>
          <internalNodes>
            0 -1 15 -578846753 -799923907 50481291 -565688060 -444293778
            -880150352 -745844285 -873474933</internalNodes>
          <leafValues>
            -8.1238859891891479e-01 6.5921550989151001e-01</leafValues></_></weakClassifiers></_>
    <!-- stage 8 -->
    <_>
      <maxWeakCount>3</maxWeakCount>
      <stageThreshold>-1.0246710777282715e+00</stageThreshold>
      <weakClassifiers>
        <_>
          <internalNodes>
            0 -1 13 -436217409 -645015669 -242548577 -68422921 -91953233
            -1192639589 -601179713 -299176649</internalNodes>
          <leafValues>
            -8.6177104711532593e-01 5.1916378736495972e-01</leafValues></_>
        <_>
          <internalNodes>
            0 -1 45 -1076136075 -426520509 -243264609 -842796853
            -1236294929 -249003903 -1948787985 -337642529</internalNodes>
          <leafValues>
            -8.3308982849121094e-01 5.6935352087020874e-01</leafValues></_>
        <_>
          <internalNodes>
            0 -1 43 -144712193 1058197847 1343236678 -136715339
            -1192237121 1020716447 -334505877 -17039381</internalNodes>
          <leafValues>
            -7.1074509620666504e-01 7.4797719717025757e-01</leafValues></_></weakClassifiers></_>
    <!-- stage 9 -->
    <_>
      <maxWeakCount>3</maxWeakCount>
      <stageThreshold>-1.1390582323074341e+00</stageThreshold>
      <weakClassifiers>
        <_>
          <internalNodes>
            0 -1 35 -1705270313 -610696943 50692123 -8838127 -1433173109
            -5528406 -1607759429 -50532940</internalNodes>
          <leafValues>
            -7.9857575893402100e-01 5.5125725269317627e-01</leafValues></_>
        <_>
          <internalNodes>
            0 -1 19 -251537442 -840047553 -96105650 -851941 -22086722
            1871097007 -1005850785 -676594945</internalNodes>
          <leafValues>
            -8.6836743354797363e-01 5.4661017656326294e-01</leafValues></_>
        <_>
          <internalNodes>
            0 -1 25 1040711952 -1118298692 -1789323811 -1120888575
            411568344 -108412798 -2003253060 -1719629304</internalNodes>
          <leafValues>
            -8.2194805145263672e-01 6.1190140247344971e-01</leafValues></_></weakClassifiers></_>
    <!-- stage 10 -->
    <_>
      <maxWeakCount>3</maxWeakCount>
      <stageThreshold>-1.1357989311218262e+00</stageThreshold>
      <weakClassifiers>
        <_>
          <internalNodes>
            0 -1 6 1497102303 -749367267 1090621719 1506382529
            -1073597697 -134119254 -470726453 -143168153</internalNodes>
          <leafValues>
            -7.9878050088882446e-01 5.5426359176635742e-01</leafValues></_>
        <_>
          <internalNodes>
            0 -1 44 -100682887 -296242913 17391892 -368373486 -880553777
            -618282302 -567295287 -70256408</internalNodes>
          <leafValues>
            -8.1887477636337280e-01 6.0871505737304688e-01</leafValues></_>
        <_>
          <internalNodes>
            0 -1 21 -2958337 -182550249 654392391 -816065125 -1186486233
            -65232865 -1131951681 1090511311</internalNodes>
          <leafValues>
            -9.3525952100753784e-01 4.8185634613037109e-01</leafValues></_></weakClassifiers></_>
    <!-- stage 11 -->
    <_>
      <maxWeakCount>2</maxWeakCount>
      <stageThreshold>-3.2193696498870850e-01</stageThreshold>
      <weakClassifiers>
        <_>
          <internalNodes>
            0 -1 0 289931231 -44588457 -1298852471 -579747629
            -2012881765 -1658290048 -1608807477 -111184665</internalNodes>
          <leafValues>
            -7.9030662775039673e-01 6.1145192384719849e-01</leafValues></_>
        <_>
          <internalNodes>
            0 -1 22 -579930403 -2143223523 -1051698979 269179729
            -1662404485 -863632721 -2130076877 -1077941825</internalNodes>
          <leafValues>
            -8.8848048448562622e-01 4.6836966276168823e-01</leafValues></_></weakClassifiers></_>
    <!-- stage 12 -->
    <_>
      <maxWeakCount>4</maxWeakCount>
      <stageThreshold>-5.5445379018783569e-01</stageThreshold>
      <weakClassifiers>
        <_>
          <internalNodes>
            0 -1 5 -776473601 956552129 348182111 -246041005 1942579647
            142610682 -389556037 -3704969</internalNodes>
          <leafValues>
            -7.6435643434524536e-01 5.5510205030441284e-01</leafValues></_>
        <_>
          <internalNodes>
            0 -1 33 -648021003 -1022159849 -149179685 -729185121
            -963793987 1527448291 148613937 -739387330</internalNodes>
          <leafValues>
            -8.5465395450592041e-01 4.6977198123931885e-01</leafValues></_>
        <_>
          <internalNodes>
            0 -1 28 -1583350963 -1320460141 4300803 -1513770745
            -213417589 -599785344 1116453227 -1275350201</internalNodes>
          <leafValues>
            -7.8818291425704956e-01 5.5512648820877075e-01</leafValues></_>
        <_>
          <internalNodes>
            0 -1 34 399523189 -1861303847 1478526361 -1181712011
            -527418695 -1324644287 -813450354 -209895</internalNodes>
          <leafValues>
            -7.9114490747451782e-01 5.5994379520416260e-01</leafValues></_></weakClassifiers></_>
    <!-- stage 13 -->
    <_>
      <maxWeakCount>4</maxWeakCount>
      <stageThreshold>-5.6998276710510254e-01</stageThreshold>
      <weakClassifiers>
        <_>
          <internalNodes>
            0 -1 24 -1048577 -1 -16577 -16449 -1638486 -1048777
            1472175935 -1</internalNodes>
          <leafValues>
            -6.8904596567153931e-01 7.6086956262588501e-01</leafValues></_>
        <_>
          <internalNodes>
            0 -1 36 -249825449 -779759291 17007055 -1061713901
            -1052073953 -251428794 -1047858997 -837099953</internalNodes>
          <leafValues>
            -8.3580327033996582e-01 5.3852421045303345e-01</leafValues></_>
        <_>
          <internalNodes>
            0 -1 1 -654190089 -632179465 1109676359 -661392489 218286999
            -670560776 -125634377 2147447411</internalNodes>
          <leafValues>
            -9.4325828552246094e-01 4.3438437581062317e-01</leafValues></_>
        <_>
          <internalNodes>
            0 -1 46 -104609794 -1250561909 654770562 -977016763
            -1031222629 967494667 -737688149 2129263563</internalNodes>
          <leafValues>
            -7.8687506914138794e-01 5.2379727363586426e-01</leafValues></_></weakClassifiers></_>
    <!-- stage 14 -->
    <_>
      <maxWeakCount>4</maxWeakCount>
      <stageThreshold>-1.5373016595840454e+00</stageThreshold>
      <weakClassifiers>
        <_>
          <internalNodes>
            0 -1 3 -12322821 1100054535 202375255 -779397067 -788499513
            17336386 -385105249 -182457357</internalNodes>
          <leafValues>
            -6.8755674362182617e-01 6.4411026239395142e-01</leafValues></_>
        <_>
          <internalNodes>
            0 -1 32 689386971 -753614054 1342242964 -719740708
            -787824629 -492796800 -911966175 -271741</internalNodes>
          <leafValues>
            -8.6251395940780640e-01 4.7052156925201416e-01</leafValues></_>
        <_>
          <internalNodes>
            0 -1 39 -644073296 -653782115 1376817659 2068845952
            -933101432 -1820065655 -2013249367 -1432057848</internalNodes>
          <leafValues>
            -6.5837764739990234e-01 6.3644790649414063e-01</leafValues></_>
        <_>
          <internalNodes>
            0 -1 41 1091667855 -704118517 50475407 -546634991 -350646065
            -33323005 -230616913 -124784769</internalNodes>
          <leafValues>
            -6.6188883781433105e-01 6.8049418926239014e-01</leafValues></_></weakClassifiers></_>
    <!-- stage 15 -->
    <_>
      <maxWeakCount>4</maxWeakCount>
      <stageThreshold>-5.0989437103271484e-01</stageThreshold>
      <weakClassifiers>
        <_>
          <internalNodes>
            0 -1 12 306574335 -1816062459 51416 420696199 -939409014
            1485979649 -910128701 2103560843</internalNodes>
          <leafValues>
            -8.2112067937850952e-01 4.5804196596145630e-01</leafValues></_>
        <_>
          <internalNodes>
            0 -1 49 295711613 -750223195 -1862200933 -585432815
            1677740200 -87523200 -2130378580 -271794120</internalNodes>
          <leafValues>
            -6.8679881095886230e-01 6.5669196844100952e-01</leafValues></_>
        <_>
          <internalNodes>
            0 -1 8 -459599808 -217779321 142671948 -1728053245
            1914213097 1641742352 268485002 -155999525</internalNodes>
          <leafValues>
            -8.4383821487426758e-01 5.2027201652526855e-01</leafValues></_>
        <_>
          <internalNodes>
            0 -1 48 1480823006 1509951492 524423 -536436317 -1073696574
            1225785344 -788385089 -810685741</internalNodes>
          <leafValues>
            -7.8079009056091309e-01 5.6588178873062134e-01</leafValues></_></weakClassifiers></_>
    <!-- stage 16 -->
    <_>
      <maxWeakCount>2</maxWeakCount>
      <stageThreshold>-2.5364491343498230e-01</stageThreshold>
      <weakClassifiers>
        <_>
          <internalNodes>
            0 -1 17 329504047 990188351 675618999 -1123956560
            -2009036049 -2008874880 -125777201 -640754981</internalNodes>
          <leafValues>
            -7.1823203563690186e-01 6.7632848024368286e-01</leafValues></_>
        <_>
          <internalNodes>
            0 -1 30 -1593314817 -918535662 1392803871 -712949375
            -1069422525 -2146942968 -452949194 -16137535</internalNodes>
          <leafValues>
            -8.7436407804489136e-01 4.6458715200424194e-01</leafValues></_></weakClassifiers></_>
    <!-- stage 17 -->
    <_>
      <maxWeakCount>2</maxWeakCount>
      <stageThreshold>-2.7319443225860596e-01</stageThreshold>
      <weakClassifiers>
        <_>
          <internalNodes>
            0 -1 7 2032393211 -1862156285 21041675 -783200173 -234798965
            -1878948733 -788438846 -741094861</internalNodes>
          <leafValues>
            -7.5581395626068115e-01 5.9829062223434448e-01</leafValues></_>
        <_>
          <internalNodes>
            0 -1 4 1559492479 -1742331773 -1995782563 -2076106496
            -1867873669 170524800 -649549701 863862954</internalNodes>
          <leafValues>
            -8.7148499488830566e-01 4.9886944890022278e-01</leafValues></_></weakClassifiers></_></stages>
  <features>
    <_>
      <rect>
        0 0 3 7</rect></_>
    <_>
      <rect>
        0 1 6 7</rect></_>
    <_>
      <rect>
        0 1 7 14</rect></_>
    <_>
      <rect>
        0 7 3 11</rect></_>
    <_>
      <rect>
        0 8 7 10</rect></_>
    <_>
      <rect>
        0 28 3 7</rect></_>
    <_>
      <rect>
        1 1 2 8</rect></_>
    <_>
      <rect>
        1 3 2 8</rect></_>
    <_>
      <rect>
        1 11 4 8</rect></_>
    <_>
      <rect>
        1 32 8 6</rect></_>
    <_>
      <rect>
        1 40 6 3</rect></_>
    <_>
      <rect>
        2 0 7 3</rect></_>
    <_>
      <rect>
        3 31 3 5</rect></_>
    <_>
      <rect>
        4 2 4 8</rect></_>
    <_>
      <rect>
        4 4 7 5</rect></_>
    <_>
      <rect>
        4 16 4 7</rect></_>
    <_>
      <rect>
        5 0 5 8</rect></_>
    <_>
      <rect>
        5 5 5 10</rect></_>
    <_>
      <rect>
        6 4 3 8</rect></_>
    <_>
      <rect>
        6 13 4 9</rect></_>
    <_>
      <rect>
        6 21 4 9</rect></_>
    <_>
      <rect>
        7 3 6 10</rect></_>
    <_>
      <rect>
        7 6 2 13</rect></_>
    <_>
      <rect>
        7 7 2 12</rect></_>
    <_>
      <rect>
        7 9 4 10</rect></_>
    <_>
      <rect>
        7 47 5 1</rect></_>
    <_>
      <rect>
        8 11 2 1</rect></_>
    <_>
      <rect>
        8 13 1 1</rect></_>
    <_>
      <rect>
        9 1 1 14</rect></_>
    <_>
      <rect>
        9 1 3 12</rect></_>
    <_>
      <rect>
        9 11 1 1</rect></_>
    <_>
      <rect>
        9 12 5 11</rect></_>
    <_>
      <rect>
        10 12 1 1</rect></_>
    <_>
      <rect>
        10 12 3 10</rect></_>
    <_>
      <rect>
        10 44 1 1</rect></_>
    <_>
      <rect>
        11 6 2 1</rect></_>
    <_>
      <rect>
        12 1 2 12</rect></_>
    <_>
      <rect>
        12 14 2 9</rect></_>
    <_>
      <rect>
        12 43 1 1</rect></_>
    <_>
      <rect>
        12 47 4 1</rect></_>
    <_>
      <rect>
        13 0 4 7</rect></_>
    <_>
      <rect>
        13 2 4 4</rect></_>
    <_>
      <rect>
        13 9 1 5</rect></_>
    <_>
      <rect>
        13 32 4 6</rect></_>
    <_>
      <rect>
        13 35 1 2</rect></_>
    <_>
      <rect>
        14 10 1 3</rect></_>
    <_>
      <rect>
        14 30 3 6</rect></_>
    <_>
      <rect>
        18 28 2 6</rect></_>
    <_>
      <rect>
        19 7 2 12</rect></_>
    <_>
      <rect>
        19 47 2 1</rect></_></features></cascade>
</opencv_storage>
